{"outputs":[[0,0,0,0,0,0,1,1,1,0,0,1,1,0,0,0,0,0,0,0,0,0,0,0,0,1,0.07471111111111112,0.2553242117787031,0.28],[0.9999999481798514,0.998145654307094,0.04000218807414954,2.4037370249424674e-13,0.9999989575691042,0.00003169082323645528,1.5521951700558642e-19,0.0020049322318995335,0.995291716484808,1,1,0.2991754921714529,5.570205898183285e-10,1.2116176623978807e-12,1,0.999999999995832,0.0058251401090608146,0.9999999758448798,5.81412754282141e-10,1.423574908657278e-7,0.9731557837130728,1,1.0493463061687259e-7,0.00004714693528874369,0.9937373202810166,0.000003590509993852944,0.0000020743926177753657,0.9999998065498045,4.713422952573436e-11],[1.5083478465553932e-28,2.6561628582222516e-20,0.00000433813112491131,0.0004826791750735363,2.756860826922445e-37,2.1953097645820396e-13,0.9999997923909112,1.34317178127907e-16,2.6353853488037896e-7,2.538117187406248e-18]],"outputLayer":2,"sizes":[29,29,10],"weights":[null,[[-4.596709746401757,1.944065758351438,12.023457888213104,-0.7909871494793634,-0.9827459394000471,11.054938828703765,16.14887571018545,5.387522196694469,6.193986180347643,-6.132186377436371,-11.285168824524527,-6.709443017845345,-9.361254279710982,9.078132650956706,-7.891975961106521,2.3353815645803553,3.816766213052166,-1.9021726731073274,13.335807551888665,4.096101748548228,0.5159630882553756,-2.394686099614591,3.2415721588028235,0.9627846336239276,-0.2839524275623262,4.107785501987486,10.04879977833429,-1.991610258701161,-11.708055138070929],[-4.900198497343808,-13.540282167455231,18.794083904728726,-7.158527708125978,3.8012126344256103,-8.443195416286486,-2.3747805043240033,5.13877934971297,-17.865894443784068,-5.20484526479639,-4.289812470696944,4.347438007433112,-10.765010107378735,-20.323159414402646,-10.539028835508486,-3.3111661797020044,13.253632979402674,-41.80610524385432,0.49987877771721245,-4.773192151460154,1.2466969713568687,-8.260356064935468,-14.782487644069565,11.028916346165454,-2.524706230033189,1.4664946407000443,-69.0631192232843,40.79181512332,91.31051897099275],[2.801311048679054,2.665244877029705,-2.0242388154004667,-3.02360810023773,0.6646608817391098,-5.306085489845801,-7.702259591968277,-1.5143966418659718,9.315515341287,-4.064388046967206,-4.52868050358628,-2.960121523411857,0.650407500073523,-9.673125079621217,-4.227735664295721,-0.3402651334547681,1.0580463240066267,0.8823184875552318,5.819454841879636,-2.5829676502878938,-4.096501055173576,4.434284579539878,-0.8859968955027067,5.581778947750064,-1.6116573614999652,-4.106173646867787,-14.277408183799194,16.670645842860612,-6.245366080161977],[4.125762861222029,2.6233161724476526,1.1645544133581809,0.00019654425157910227,0.42455005226656795,-10.446705628302805,-10.793154773071743,-3.0422373814502794,-12.348488904991724,-2.4292870999484877,7.446294131891329,19.82099045869615,8.628902268608266,19.23625267789897,5.463722964352999,-7.296119378732465,-6.924093341127119,1.1073526735449617,8.316627918255008,-1.624211631093767,2.0252921665087342,-13.82191947461045,4.716802787894312,7.7286835722686,2.700527119450271,-31.65770237019241,3.549531119840085,-2.207929309384965,0.6782582106768803],[4.652538744267076,-0.3951520554340446,11.506625523228811,3.8601437762190427,-1.6229194565676153,9.929890918326153,-0.16840380342375577,7.833093009020936,7.254519262826816,6.135078616137206,1.8623037153068154,11.150230792414535,-14.587800807977205,2.8001922959892873,5.279872803704171,-31.302371792194677,1.8060967289264018,11.501284293042595,8.181422934903175,-4.8259218418818595,-3.62112085102126,7.313205363845312,-4.629623795860502,0.05931806301271977,-0.04870590288192034,-22.693669472191264,14.033084608081598,44.61234543919056,51.89762208580305],[0.5507982196286321,-6.620322299918377,-0.5165970458728225,2.172505631011451,2.9957297584041953,6.858997402005154,6.153368391651605,-4.85110126269738,-0.5393368590357465,5.403750828968122,2.55396696875306,5.592694107172625,-9.405133260241936,-6.3103409925327485,-0.16253150524599505,0.8812516105558876,-2.7670902524270495,4.130015349836693,2.7191721595774023,-4.140392581357402,2.664020569063723,3.199990916543688,1.9476896862070674,0.07535475347522448,-2.710086335428059,-5.677075722115862,1.69199861075426,0.770156290637608,-4.577498780857789],[-1.6800907463766634,-17.264989233790395,-22.19722716201748,-6.315771725523877,2.370148974005133,-7.832826128502877,-17.86264736632746,-14.107161052886456,-19.271511509035353,-14.713418114058513,11.353185527805747,21.90424848284922,-43.79592844218847,-13.936104485676939,4.504337601374945,-7.5325932485312075,27.126968660172935,17.232568279684692,-1.1712444850204904,4.496563585381312,1.2372430763207376,6.141036703460583,-12.47921138832238,1.3258482805161045,0.09823125787079334,2.247138403456183,-54.30473575563931,97.65552618907756,63.91532820237339],[3.73468428151682,-3.8717056406447488,12.389744835662736,3.203338782643283,2.8092234395444393,13.204348994099055,-13.033538185191004,3.769665022297445,-3.048408786506039,0.1976847115628399,7.450531282409363,9.713240244697822,2.2002896866702106,1.4636189782020192,7.0986798421885275,6.676490251794022,0.4778464705678115,-18.501429124620902,-1.6971699517500578,-6.617767296441244,4.256538145709783,14.397917391188326,16.44139710336981,14.734729703980584,4.030308264773339,-5.585637868810162,23.523741392938636,-18.151413116081024,8.96695789343674],[3.054992922116071,16.88281658049564,1.5180444466758685,0.47096903072973484,3.9286425383761525,37.853379716886366,19.750285234646455,-6.573983443336866,14.497621847173818,4.057864113532462,-13.144571955043565,13.966702504226257,-6.3979275327832,-4.615885919263519,11.9128113741399,4.688869534826131,20.46253871785284,-0.6526748275418226,2.5242818475869435,-6.712556583899591,-0.8519128803163767,6.909818777551673,-1.4905858398367928,5.196032837911806,2.3463081219233572,-52.48017709449632,47.369188255146526,65.28384247141335,36.98577528650348],[2.937498912215233,-18.02395944075281,-13.031741554800396,-5.074923424230574,4.2484675999730825,4.608798324647028,-5.204761247390844,-3.1625862838851706,24.150890265609185,-2.850359949023982,-4.842850354788457,12.651504779359897,11.31353243250752,-26.316007683774554,12.427620780853982,-9.113672880660722,-21.567536770617995,-5.103711271360624,-6.436676421014739,-5.141768797133466,-3.0095746996812522,10.044377654295216,-4.473608680980662,-3.1011946865767706,-0.6844231951981783,-8.441245459756683,143.0029026225765,-175.00541938335695,217.11718099826325],[-4.296636348590255,23.912185284824552,-11.014933071399408,11.054036608027547,-3.7635313742794096,-15.454043400532749,40.53007496999454,33.395045320857534,0.5683809717913721,-11.168450982634175,5.440125538755099,-14.025820664856989,9.755244849691525,-9.909392163882538,14.121582118003369,8.44521103283229,-30.83421295134056,-8.514606021119516,-1.0969422876535317,-1.4920224855441135,4.262700718827546,0.8837008155842409,0.09204610527977013,-6.096505533429176,4.838829501532018,29.869442800545837,12.646920885571193,-195.87174086496546,-68.18320247413511],[2.3361440584994853,9.459204468488593,-3.2101590915803913,-13.15701590094712,-1.321867029182613,16.639710264076754,-3.154601436302258,-33.992412865250344,1.9179250180121235,-5.383315600317635,-6.533210811411046,-6.276720095630637,15.99523261070532,-3.3939511932383777,16.300940995544288,5.610788085044012,-14.413826608351776,-11.618377621000269,20.295038916720273,9.087374449964011,2.3514975630678236,-1.967041661674688,8.400959808507578,-4.579665171490087,-4.727572917472571,26.336170799920275,-7.69924080107036,-0.7833402684430089,-3.6381082254041837],[0.09723287308588624,4.024029614634582,12.009478448194834,-1.935230404423803,3.539875806309283,-2.781718580168459,21.67887980253318,0.9256107789706063,-6.300596153884572,-4.6932153718171,-1.5380975878151375,-22.603765814128554,1.4006596624376337,6.440230188474167,-2.9587017634977677,-2.051060587458013,-7.390878947362537,6.362341344712348,-12.170855197021545,2.7768400189916935,4.141043636482209,2.9627486128080602,-4.091960807781408,3.4925036222130172,0.3993415809236467,-8.819456351347542,4.876283761699222,-7.5430138243145874,-7.36278500242096],[-3.543366666417569,10.01741449226211,2.5056841759131077,-1.9543986956516852,3.024298727978021,21.98974701779868,-25.361019407511932,-8.746738312060861,-21.23710686165799,2.9259578218503473,12.514820919602613,-11.9868155414266,2.4371387895001257,-7.7471649357794865,14.011160883496828,-6.272902513506737,-17.631313223226307,-3.231209623705085,0.429811529376458,0.2718309630536048,3.4574115416035056,-4.803968018890859,0.7511992942727328,-2.7312628941435135,1.94191136630252,-22.66372416737844,-74.02497508243398,118.49596711419868,110.54818767689338],[-4.706348949111998,8.288392469077895,2.442709639399673,1.1045845563079806,2.412184977438301,-1.0177955123357845,2.574115877572146,11.528890383403802,24.129246054672933,-0.25337481683476626,0.03710337357389414,-8.908497856474158,8.064248537311931,0.9797870303259082,1.4193472317242135,2.5519896368645894,-9.151751541684913,-8.467641092837766,-14.2829280567561,2.449237153008116,2.795049180276692,-6.142049917001219,2.414084944874489,3.2071465115401177,-3.707966322544962,5.620776034208776,0.18182217481385302,21.640941729998335,17.42571256341933],[1.6765366471372545,-2.4087764768732063,-16.07825417792146,-1.0695965938625014,-2.4669021903537214,5.052055369426894,-4.327919435760558,-0.8750205684296163,9.692487263013675,-5.937313708297508,-0.23233319402254354,1.335303614778032,19.193801163573088,2.5500186951849804,-3.833709033819735,3.041051980882544,-4.006279149098015,-3.9030424490054347,8.670301871746561,3.3781348657295767,1.3708599098026752,-0.17424128398183367,3.94581374650271,-4.889723040429302,-0.9293120866641402,4.60208096382406,-0.9482753453582191,-10.368010418488671,-15.315620400544184],[-2.240875700954348,13.931908384278893,22.354588851975592,0.5530662452204796,0.07034010021016002,-0.8224281900486256,-15.25096788247291,13.189870026711544,17.644842215243123,5.356417644981819,-6.985868984657452,5.550036186201254,-16.419413108982994,1.2723954422308164,-4.4880123624303225,-4.775644057726996,-23.962901556842613,14.881807877072912,-8.840261714885886,2.194124395342397,2.636453297454864,0.9687544070486063,-20.371353564345384,3.4838568093633273,2.885407223366201,-6.344808378775762,-6.734174395679529,-0.2484975003401855,-1.2760405542119118],[1.5261259349063039,-8.500074298646483,1.2161567237585231,-1.8906103764187974,1.8057466647587717,-12.843125949609561,-2.556090435782431,-7.5806360969450814,-23.954271604659024,-20.73649862011421,-8.509051388733624,-17.607145934383862,-23.81884507416616,-15.25836396062997,-6.3291858682717335,-3.997927434757704,-2.1628804926703107,-20.738209661004472,-7.9802064133113815,4.609324854774214,-2.3468707827851176,-6.770728414239614,-2.13792456384277,0.9986809068454595,4.710577910300344,16.307370658721915,-194.37854879542277,294.99777614061924,81.55575187906774],[-2.524808601010591,-16.70361568346436,-27.679335509970013,-6.68451219701319,4.350787503644824,-3.280557720019453,-24.799105591075065,-3.1146811185953327,19.219750730809338,-2.0686184224872255,1.246998306233836,0.2907388207156586,-31.764184018629575,-11.702099789149385,20.859697156318475,8.39522188548638,-10.486950011242193,26.315154184053295,-11.92498990971528,2.8054589838657846,4.564426392316818,8.707078045792702,10.314084263537245,-6.9246710143043035,-1.8538382952101529,18.334783674730918,65.76172057414814,83.67338977136635,-82.10885598204048],[0.6144628534093499,-1.0643338239637556,-2.1420987813588908,-1.756709851881374,1.7306676227599382,-0.35021124295794326,-3.812996923585463,0.4030962777764642,-4.115388487666501,-0.5234086892174942,-4.973120865748266,0.6807185464476925,-1.7183576550591486,-1.053031417816595,-1.7588421230082456,2.3090080871352265,-0.8365581007481068,-3.735255143299988,-3.9804773669314595,-2.4842954931337853,4.108574683777988,3.734281609537391,-0.9729399011608886,-2.296594070355202,-0.6398605927824974,-4.007806554423353,2.148867383970743,2.3721940768912315,-1.898229239522426],[-1.8969503534026444,5.16798375779,3.1493609622268783,-24.95633801532797,-3.0929067661054432,0.15558571869108173,-24.07791646831202,17.569652555447465,-2.3335619325436503,-6.944703049565745,-5.62000100674743,4.341724239197062,4.036239467720479,7.631671568553191,2.132493694577,1.567770632675347,4.479508129733212,12.90504852727084,-19.49028614729198,4.325292492292814,-1.5235726535320282,-8.318255595710033,-4.583915916204763,-8.175448730332679,2.7136326394975185,7.0306129060002505,4.624822979499453,0.26565278469574644,-1.3925176880277088],[-3.149864673614502,14.68610132161333,7.754443263138309,0.34050820632211615,1.2728201597929,-12.211971520332842,-20.701291264317458,3.2011301082555295,44.386042999476444,-13.11050437430769,-10.45913020127903,44.18434726081838,36.87464134970364,-35.58726558940281,-5.806442786892628,3.057489841697883,30.942462270551683,-22.277436054360848,8.619622575835791,-2.1103939016606934,1.857484863139689,-4.404067734002614,-10.017750325040849,1.425527663568018,-4.48567196726799,11.423171106490303,-23.251855152915105,-131.89391745816113,-142.76174441688482],[-1.8726190784946084,-14.034487966815613,-14.294538181645628,0.9912206325174945,-0.9900404768995941,-2.4456967726151504,-9.962768014519009,19.832966133935084,3.8848780941718886,1.7672762743761772,0.8419562414943017,-18.843532870863015,-0.13213684927803102,6.751524992452837,12.877812610035837,-0.005898865101975828,1.8438013545099792,25.224803581089677,-10.575543660505241,6.423669803401317,1.7682956554926932,15.456029569290369,19.382459246911147,12.110106131701672,0.16503238352015615,-20.18586818037057,9.84916166013164,-13.239093333031109,-0.51550569720334],[2.8408404579386115,-11.73675751354567,-8.571521433407355,1.2193332901466851,2.9116906505078077,9.333707653674116,13.623092754367871,-11.276264950234102,14.074448291488693,1.6560300989585321,-7.326157055104266,-7.029882370775264,-13.737134535361937,-3.7652391065651805,-6.797903731190113,-3.5702870351263085,8.714477047276224,-3.0813826046360666,4.657042305711753,-0.8163184740212968,-1.271210692357272,-5.764466008969769,7.013087295176807,-3.292489694735684,-3.5528324963524938,-9.532559518244078,-4.47831917967826,12.576879990675792,-0.43837596761434694],[2.8123238193802536,-5.461196849439859,-9.066805828551544,-2.0546173598969912,2.3119917139410973,0.3262002081609125,6.813290887933854,-6.408881454999489,-0.5500271367929125,-2.8328393932561005,8.273805333632703,3.6950850553480366,-3.947180957589269,-16.577496827998683,6.806695795842138,1.1501039932762867,8.600277108988859,-26.33299592021383,-10.213821351827333,-0.18381295250747035,-2.200597426854074,12.519708258989485,0.1839563029052611,-3.0475826737686917,0.2714523673057556,8.241657671505545,24.541838908429284,2.073986870041425,-14.379011505124447],[0.7212418923154473,-2.702507437595657,4.463460792826169,1.0224870368860908,2.957815658301115,1.1406012861081347,-3.149417244524931,-2.239484930021189,2.144144127542061,-4.319162500075932,3.1372766873112843,-5.989301452720774,1.3159781129842,-2.5347310610317755,-3.7496700715981617,0.7033101754268815,-2.4944712905386406,0.5267102808211559,-6.493546055897779,0.679490622491976,1.22563460143283,11.882040052392526,7.706954661043517,0.7183052171228882,1.255777555052191,-7.207402485166522,-2.6935718900522296,1.147200655467393,3.822160821199235],[4.665523658040911,9.122312816158463,5.18891698197996,9.190801332087618,-4.71799035789445,7.873272656459764,-7.905188328436837,-1.48906263121938,-18.11956275532959,-0.02962735725502752,19.38982944194349,14.433538539805395,-16.956714006531143,-3.1362149316492,6.5225701941543806,2.988018215418529,5.095147884248997,13.402111963099573,4.780526785813414,2.6331362957292073,4.514157262165099,-8.737659057938718,-15.67710424628164,9.869903084315911,1.974928539711982,13.190770254645896,10.991770866405632,2.382566061065895,14.475114833040198],[1.4988506631925702,-26.314923669305102,-22.34189954520853,-1.5611360388917108,0.6485114619135857,2.9562121883762846,-23.805842335297545,3.776298699961102,4.74115924104175,4.401355291303617,5.7512983966081075,-14.802949023874477,-7.346333591612636,-1.854078720704644,-7.583116067488183,1.2096848544834191,-12.643685240706242,22.34406045945472,-18.798525471007373,2.7874436277621095,-3.7814360461197793,-7.21335796720706,-2.960005639661152,3.182072429036752,4.003018192015588,6.435140116881477,-21.95082520938452,103.00307903033945,74.19393646262064],[-0.38175371941179037,1.7226133777918022,1.2245209772564445,-5.806034941917774,0.04130001412704587,-14.436805214917719,-31.06974506255958,-11.724657050414287,-10.627690945047053,-13.955147981411297,-19.765647211360022,-8.598375706682598,-12.978317351949086,1.8845563750632741,15.160779175644894,-4.9059606391034265,4.093979857745166,-35.15849282770726,-1.2703783326251314,-7.229192347035536,0.1618978870101273,-12.55925393013444,-12.097429752867942,3.797561843128098,-0.39515879238024354,4.942649007142099,36.65884277032518,96.01104135261787,91.58754535263697]],[[-6.299723097578263,-14.549210890190503,-3.9226575362470286,-8.639634118999373,-18.965460032854452,0.36413018651874096,12.130284240765553,-10.450442162363526,15.493790944201736,-9.036423103781111,-18.020164298436356,-15.32759998775803,-15.63882860641405,-1.0135868779432666,15.587524021079798,5.283577584106494,10.727850630743765,-1.5170233232507508,-5.871080863559683,1.3038538850417565,-13.422439351439232,-10.084097373499674,7.780824447658737,-4.015788970746787,-2.9364475745306597,3.97348785901941,2.0971380599790583,0.22207233032168405,-6.195726163290679],[-29.830413496993142,8.72365193676995,2.972515835167557,17.636173848827084,-1.8701572984021664,27.83468546431169,8.789406419988502,9.941353338468595,-13.980333405314186,-11.933553610280041,8.25219774531865,-5.770524985033554,-11.417142643298721,9.828074105869641,-3.7062028796646698,-0.9493232774011882,17.43328324946053,10.265306918115638,12.126945284999307,4.834488559750222,0.2564899052908061,-3.294661612319246,-3.736621962459083,12.80826107647895,-13.057603569477156,-17.770120268094246,-31.65970691006773,6.390043578456104,11.133267983357756],[-11.782800749433827,-6.781203698764373,24.354551204702833,-14.537359607927005,-4.170588342000806,4.6564564172695615,-6.8832184851284755,-4.157178471959565,16.289016968816497,-12.78584238539835,-10.151443754579537,5.082762587288422,0.8878268764995161,-7.354350847828522,3.6184388267485255,3.653215490885001,-6.524519592253184,9.805179884715454,-10.235594543755722,-2.422813239763468,-9.090279630011546,8.258017486841918,-18.344424076174885,17.05860612221562,-2.9451717209443005,17.089793101750473,-16.62492847396108,8.07296928241572,11.423930586052526],[-1.3224615286131947,6.326626527025484,-1.0662085744573646,25.91663998901008,1.3875577659166325,-8.82222155432518,19.30056172140962,-12.5657011621634,12.294756920538271,18.650495142532666,7.406108378745685,0.3662535563909552,-9.83601064101491,26.720827664161096,-8.875887639469635,-30.597910725600098,-3.4753013407910407,12.285413488600213,-6.956061061190418,-0.8943921479248631,-25.146436275124323,14.559839628328815,-28.646909899634302,-20.65217619003181,-22.693334802154364,-1.165020249159534,-18.53999249951054,10.42721434210016,-8.70380697687546],[-9.813450046700583,-6.664429759954428,4.624097070999367,-8.801168089505751,-21.19587710738965,-0.35215420327350344,-1.8577210013466594,-12.210660494402223,-14.420543457430687,-13.446797808517392,14.06397011553946,17.79459414612118,-6.555797207228139,-5.064361009898548,-1.012081436960458,-3.5280507567845825,-15.512160946630853,-7.53813701110662,7.962583470502229,2.757860626449872,-13.531510019326245,10.366263908831389,7.166838733535161,9.237534521186046,-14.475270385396584,-4.615985259504243,15.365122152683643,-9.547217700865206,0.8406808942393283],[-1.243619200023509,-3.775347001473649,-3.9465135221568493,-0.7279353445419239,-3.7382691044770002,-3.982540377736254,1.608031592441039,-4.835245372145186,1.5324736651710937,3.5026765566299307,-4.227242672144038,-0.371635859881202,-4.33768258514157,1.9105264582774253,-3.872440026197708,-0.8842603448621462,0.9908395524164323,-0.5697122249176382,-0.7049638646831146,1.7776773765216907,-5.505137545312199,-1.2546416914494647,-4.687095887575954,0.8001538645492706,-3.276425915787355,3.429471257722913,-1.059474628329935,-3.070063351120273,-2.2316066713621874],[-11.098044794832832,23.82641396288314,-8.43854393936909,22.97178815031134,31.04564157380804,-4.44155666045683,-1.822751435085957,-16.10929716608192,-27.55086104756782,16.25413116662788,-13.744608331472877,-24.21437144345585,21.888848050363535,-18.095579843864133,-24.369772396393074,8.87762568610794,3.172580944047297,-11.135468608047619,-6.593981778480687,-2.1293526161081324,-20.366383277452332,6.5583587692209235,8.160946518851231,-12.041993194109422,26.260984827090542,-9.117354555782637,-15.191970407605133,10.16178584295634,-22.06043546231018],[-16.019960639190057,7.94293986465682,-15.319938157770514,-18.639906257842366,0.2848927503183907,-6.761032011172628,-18.19596871879203,-14.407447081580827,-26.710055053869596,-7.300070894434787,-27.490669095909656,23.838081248980156,-24.663554115612804,-10.265110684843478,1.8879981267242072,-4.4259436930257685,26.11366615460961,13.763076958519322,8.150559012352442,4.406579231983366,2.711579498912403,-15.629208964693989,-23.994791573364296,-3.552743903339271,24.12757153717611,-3.66288950922967,11.375566180146729,10.022095842344674,-24.335324989911136],[-2.3520165020500445,-5.39704042476201,0.8513852638996584,-2.354604925953552,-5.869843031840887,3.358201994990111,-8.997844174742799,17.284660242150853,15.58128828266918,16.25458609330724,13.223035817923487,-33.543880681131355,-17.756068171916105,-11.854741913012258,-12.534462264124516,-12.053139721878258,-31.391703032683687,-14.20625998470577,-37.30935243071165,0.5150430100718385,0.3217104273857527,17.803290248831775,-0.43273202877767225,-7.482869421971721,4.341457509561524,14.246782925384819,21.282262508403672,-10.609113683539043,6.925132049351503],[-25.88823313015062,-16.949684539669036,-16.0852772218053,0.5333846178160788,-1.1030066570736758,-8.942024846300328,-41.796514234279556,5.588839226790682,50.41327932503676,1.8814270774916222,-0.46596281677882506,16.95393649501869,14.619478208773199,-11.812441996093968,-10.828579837263415,-17.60639007738239,2.115799050299291,-13.737612877557803,18.485950225364135,-2.1028169985659115,19.99531641053671,-17.015549297877453,-17.758185009667613,7.196003565714398,-17.636680434253954,-7.827278959541448,2.7205876403043643,16.931588726616067,-19.134290339137575]]],"biasWeights":[null,[4.0440192108299655,-4.480960619429665,1.6979957339831366,0.443745211251388,-1.9843883129445503,-0.6742180956287946,-11.196530114824057,0.1405139927083972,-7.972376434401563,-8.124536272095956,14.763666013624198,0.11707366453990245,-3.9665695532684424,4.4413069488826435,-3.922488851713255,3.5892681616992888,-2.5854326771727423,-6.885059918041452,-2.7193565161571334,-3.4289081285567673,-2.999705279693413,6.912531568423948,12.125294399637797,1.1622494291312604,-1.1140432175820572,1.426397772157516,-1.7221875293070172,1.0272608118384343,-6.619163557340761],[-1.4489220838465393,1.0198533806810381,-6.985429547275109,-3.1053784618880225,0.6331209045318699,-2.660309861003785,7.796544719221001,-6.239503478556731,-9.403581703294927,-12.325102761491863]]}