{"outputs":[[0,1,1,0,0,0,0,1,0,0,0,1,1,0,0,0,0,1,0,0,0,0,0,0,0,2,0.07377777777777778,0.2601967871485944,0.26666666666666666],[0.0000033654599429841205,0.9910321999597029,0.0000012602044600245279,0.9930869583870253,0.9999985300971205,0.00007617025168405726,0.999979787242472,0.9983208763728696,0.956131969150644,0.0001046702694892011,3.605230723711294e-10,0.9907979031874422,0.9903263104329276,0.9999932092210927,0.9991813018804702,0.9999999989898973,0.999999085760361,4.189381856781164e-8,0.999831821032453,0.0023139015409094224,6.929039043439097e-7,0.04955293854406982,0.17579745732369173,0.9999990849495013,0.0000021271277486608485,0.9999984106811723,0.0005299600801220336,0.09527156867277191,6.033670972197957e-10],[7.6886825969345e-14,3.850087045073487e-12,8.634787984176801e-20,0.00003184813802638571,1.0427900192300519e-7,4.680818025155834e-7,4.001396845425753e-14,0.9990173088394916,0.0000261498333903752,3.961654297804652e-7]],"outputLayer":2,"sizes":[29,29,10],"weights":[null,[[2.8681946732103825,3.1012877275203774,-4.6351916406612315,-1.946496017784947,-3.589868377894163,2.8908300634715904,2.2178023323636613,2.034550028005269,-0.25166201919648074,-4.397045697551221,1.5305282893254673,-0.9123429563220932,-3.5890974849929127,-2.129598570717867,-4.576278274869374,4.500816135376518,3.198949628990812,-4.192854798260977,2.1646222126995682,1.91057842457667,-3.1337209325283766,2.5229368290481062,0.9295798986350284,-4.037813387323239,-2.4397678370587528,-0.4203994425762638,-5.77484117626132,5.571175790215313,-1.8638831996176746],[-2.543707573786378,-5.526110305919064,-3.2133189946743936,-3.4689326153454694,4.409111863933504,0.48262044068404736,-4.387857743986742,3.257007753679555,4.064279735148565,2.169886121992022,2.0828575967913543,2.725338874868534,-3.6208994573668805,2.5334645235351454,4.623674728914116,-4.904413907216731,4.734769385041348,3.828295912088424,-0.7515446988792756,4.362862261477858,-4.3801201693713665,1.8284585291014006,0.5811897722439332,-1.3945691324163663,-0.14812310226261616,2.438897861265169,0.46947137472013595,4.752738420186594,4.077028181750295],[-1.1394729116000235,4.12415146010868,-4.331765476336968,4.537632362873132,-0.6334701995365322,4.12098853456619,-1.2392880658354677,1.759666725505072,-1.1576268282749287,2.122383469250053,0.7874059603267075,-2.2827271182205564,1.165041232372852,-1.975420520278061,-2.4563257182008877,3.4162357088645927,1.3642778725525224,2.950313257175548,-1.613597858373186,-3.2500391569919884,-4.225561085622758,0.8948293424440311,-3.359792733473911,0.7149727025999622,-0.4132044268772006,-6.165129803967429,-3.0742395582977577,1.517973680119367,1.1178398101301823],[1.837845218833536,0.6418916974119475,-2.4184217987496517,3.5672472890542912,-1.1446146969683468,1.0240030699462126,-0.49628391452900594,-1.7773753857169672,1.7381412409267774,-3.8727926835417747,1.4357628839940568,4.032098631896325,-1.9618535366327494,0.7777415429896598,1.5352329635198394,-3.096824348568973,-0.7373832650871504,-0.159313361122926,-2.9283502447254346,4.678404389414936,1.1079799220897257,-1.7218765451660176,5.27180526219745,-1.5094579890759772,-1.7918995511718094,5.0185999750572785,5.253482725804583,-7.255283757508864,3.9053435937090963],[-2.526895427145064,8.62461357365149,0.5194542480625927,0.5244364711573059,-1.2241869373247027,-2.78204198630851,0.6725463009772138,2.4697791397707958,-6.318507981339725,1.5602220804430544,2.2073213540672567,4.735519042554873,4.465450357345102,5.589297201629303,-3.1605557508231694,-3.329636001810073,10.456197892131122,-1.9158452719023393,5.912032630590682,-4.714940919075161,0.48296221531927586,-1.6742998480019673,-4.123164904742565,-0.6400064938600695,0.2856541029177606,13.717411324073918,95.39011550692699,-150.86169618885143,-9.474372195768344],[4.540898157283664,2.302484752516554,1.1270885856393664,4.631204069430388,-1.8247420713305473,1.3196995519413286,-1.2935245174984,-3.3916376178976213,2.144915424831373,-1.3930948358029127,1.3358542617668228,0.04039203216056976,-0.5786998160917578,-0.2078289470456653,2.8307816247776034,-3.498112264120302,-0.8487719735570831,1.625208167554092,0.5278786690287313,4.409234973136336,4.06533183529973,-2.7329572161776503,1.8930019955383497,-4.09263716355398,2.434385293163359,-3.833719819059876,0.16582512612161548,-4.511197686872155,-3.8857468182318686],[3.147319278214127,-0.645250445959357,3.885972079501874,-1.6365548357644721,2.719402788206935,-0.6098920608009145,-6.025209063064589,-7.228401699904433,2.938592104225244,-4.9919483391568065,1.5105760586420054,10.753458892287117,2.1155712829082503,1.9571461172972247,-6.123801958891197,2.381838042840159,-7.71092510742463,8.504635794659041,0.7383076246263574,-0.2834294782951474,-3.5579246981069446,2.4828026523209887,-2.191554982466762,1.2702700563790403,4.9994709878228605,-4.703046293862355,-2.564744995781192,-2.52659565450845,-1.9901834862791539],[0.16583373537287116,7.660255518639806,1.7491586034964048,-1.6323136505494025,-3.4675195207819343,-1.5360607209778931,0.5326765094092528,3.5832548131688013,-2.645691148993369,4.9562318180687726,-1.964260380434282,4.281845511774975,-9.396272946039804,-1.0432023164934472,2.0225962898071685,-1.2982122467402526,1.2271690586645827,2.721761263227431,0.9925516073015631,-0.8810816914774477,1.0877575469203293,4.153998158833487,7.145276382232113,1.0615377079669477,-2.2512161172926426,-2.28886730396532,10.392515908438524,-4.2185337282648,-0.6278900933029572],[1.87289719004184,3.782335109800842,1.0320493163641804,-0.6995743557684714,0.901683708652854,1.2892659316712272,5.421188593213939,-2.541142291629741,-1.5577705776246358,0.031166160479187965,4.500086193064749,1.4882410235310706,0.295401338600597,4.436942295155334,0.8604560642199321,-2.5571397360905137,0.6573400619757825,-2.9854293716083538,3.6681594639800146,4.028055167291313,-3.3171843737363815,-2.4585123149137966,1.3224269833751288,3.0792790460698565,-1.1740111885592341,-1.5589979912628922,-5.509081175229978,17.23793051461784,3.0608343565360028],[0.767096842173487,-2.0344930142413493,1.8690542469491875,-4.432452524033618,0.22413692204281688,-4.624940384011334,0.4547680734242585,-3.4397020270562058,3.0311297960988197,-2.28598938556388,-3.703165453112376,-3.6614797529119243,-2.5848406191013353,0.6886248481074191,-4.300755634253411,2.235286382151262,-0.16452716350122154,-3.1742277485291446,-0.7597047559316279,-1.2317639007233083,3.6111840582452714,-4.677379321559522,3.6158407631619625,4.5875280323613215,-1.6640780004672706,1.7219320585406372,-4.460910789310258,-0.1301082625207364,-7.506375152681399],[-1.1370193120092154,-0.0639082279973866,-4.194777876893397,-4.175317786850888,-4.422124570701271,1.5023375900804588,-6.964352264248667,-4.08736936592006,3.7493834412949196,4.811061532236636,1.4471140951828843,-1.352797910614095,0.9395606638725305,1.490662533640951,-0.5701071250835341,3.408022956061856,2.2787766966697847,1.636695529038546,4.858712089682669,-4.356278602499515,-2.6213131612166762,-2.454313163440583,-0.9272107172257575,-4.54646409885857,-4.709683477412909,-6.010320563720872,-1.3253051769962607,-4.137681624648947,-0.584689760883698],[4.322951871436089,1.7218329155215268,5.477346167559894,4.6098588234401765,0.16678776359185576,-1.1144166857868374,-9.490393227204878,-2.5667715090332393,-3.028474090012334,-2.05585966585204,-0.6066398687420393,-3.731539999731875,4.6246019557544376,0.8307262762190387,-0.805377567765967,2.5716759392254662,-2.111375806880389,3.1909723313797063,5.059599706707949,-2.1059048757888377,-4.018793490249664,3.0091108748328956,1.5701388472864857,0.6785757412643219,0.6175296497531235,1.6800446902485051,7.236877779394913,-15.168819541363344,-5.862515881061903],[-2.2165125561878085,0.7122363977876618,6.49537838195273,-5.2863769514442165,-0.20408930722624063,3.144044899072077,-0.7924234739232501,3.425308258994414,1.3113648261897537,0.7340993825346231,2.870444959587921,-3.13150690290154,1.7014021557912227,0.21116004589778303,3.383219521795508,-2.2976908428685663,-6.26655275726241,4.588368631196694,3.6015820727190744,1.0867989854887128,4.397121828515083,1.8863374021362076,0.4751313495371793,-4.490661885131322,-0.6916689430363476,1.1003714776810205,42.195074406784975,-58.991429892335546,5.103183377124189],[3.5653212387114763,-0.7912076806979665,5.718155403600317,3.634713743973669,4.221133370883763,3.857574855440954,4.112704986082029,-9.652733395159908,6.5076222124397205,0.5083472025580704,0.4706470972312365,-11.59155255322439,0.05679283205195501,0.2529731880525205,4.059795043724004,0.5006431848579624,-7.937482050170507,5.235822606074329,-2.208817428072484,4.654964820947498,2.867029074113816,0.9900229840726813,0.4552885366750205,-2.0780291358373875,1.7911860789172351,3.8984877639616684,-11.201721913132575,55.10958631099,13.5997294518115],[-3.1415436160750687,-6.6614824175619605,-4.648036297015824,-4.294736115422747,2.7349618705920875,-4.560627365262346,-0.9614623685714171,-13.127127687153772,-2.8496227876602878,4.9259804538451135,-4.533148601282988,-5.393913056380785,-6.558500186233367,-5.499621837211208,4.817625162490113,0.6294244088289322,-7.503485454918184,-4.31857744358102,-6.847222031151037,-4.244997790083289,-2.2524268249981105,-6.504546386468017,-4.535003755746554,-1.0071337657384505,-2.8542885347269475,7.950620219492932,-87.22675900674447,153.6497865897694,14.908886974496225],[-1.8537851562723517,1.8197318018077433,-2.763300283463705,-2.9848387447558715,-2.7694247593171895,4.665556856463654,3.0088069191537756,5.603200024760956,-1.2519451649257378,-2.9253647616133094,-1.3379894363053113,0.4030207594330139,-1.920564383710541,4.93548980855606,-0.9871103463697384,2.74216722784407,-1.1000641880715818,1.4898393079354668,-2.377055590588266,-4.334822501987219,-2.9941118485294282,-2.3340633983539143,-0.4181842064900867,-4.537984576573725,-2.8886954579502344,7.178792828058303,-3.036735079118968,-3.3413203234144606,4.291592588632019],[2.7465189900249243,4.555400084215923,7.147710531588323,5.564572278577624,2.4290039762854576,-1.917659030584126,-5.743212839478881,-1.3832365867677985,-1.9934980724765028,2.2075331932865083,-0.1670086234749904,-4.353437435226415,0.3114104182296441,-1.8520334242402656,-0.5906457247648829,-1.2880229879901899,-5.99056234227093,-3.8230615934134495,1.4256239833879398,-2.4985933769494295,2.9842000966891646,-4.92230431750916,2.5196099521774347,-4.823107546652231,-2.8354084258899093,-2.4519608677671147,-38.90607075313378,66.60827583026567,6.65731686140266],[-3.539016447030008,8.174437481484286,-2.0744432851082486,3.7748773004422316,-1.3631188869476318,4.773525377733206,4.8605865623496145,1.9371910117823417,2.6244855153282014,3.6454221000894904,3.6505707048064933,-5.771052398794579,-3.6845258083896564,2.548955174791561,-1.8604052494199688,0.4002880639557609,4.465729696113946,-1.06381200927384,-6.942528149977095,3.7025780510157347,-0.3614058648236096,3.0123732199268085,-3.3920537638733266,-1.199110310424392,-3.8956153369508684,-4.842620464375268,10.743283967826907,-11.24511034617063,-3.8382675638799233],[-2.148703266866505,-4.421084706185433,5.424343743677541,4.411379617145806,-3.632378177717328,-1.2739384484791927,-8.816263523915232,9.990259350308511,2.074368998991375,0.07467963267117739,3.362034692138652,-1.5389909686987577,1.4787989851971337,6.10200213894565,3.7020054600012124,1.2878801743795583,-6.705957002207753,-2.9444690919707184,-3.9806518634552726,-3.5437493515200913,-1.2286012037657201,0.8870544339733241,4.907527317280102,-4.036817712422004,0.8934414945542812,1.7487008390338061,13.419966962714774,-14.806101807360205,2.2604554999247126],[2.956724257674068,-1.576516110427125,1.6860113332087001,-3.352489700707112,-1.455155850853771,-4.174481615846965,-8.716047169193727,-1.6195404713131842,1.8018731261086591,-4.852835405617952,4.447193080498871,-0.8923208082762476,3.2859351313378435,-0.9722673285801063,1.9043707498402551,-2.1939725445971368,3.394058794573265,1.9538232267529765,-3.9474464908029634,-1.6711310017853975,-2.9461700073443353,1.5920025133527989,1.9453711728267364,-4.62989581495784,-4.731586237903684,-3.162095970806455,6.26398017189316,-6.477613434884961,0.01875246400526681],[1.6181922215037048,-0.6075895198443046,-3.877482961967765,-4.670634029402044,4.449969585984945,0.41548821942784936,-0.983115904480955,1.204105971292757,-3.7723782314965564,2.9007068811915815,1.6605168551106904,-3.8875866115464977,-2.6751727032760346,2.5334546002087945,-3.324250219399039,0.04354278588056167,-3.30114151629776,1.081888520321597,-1.0533706647613637,-3.166257101111114,3.2847994402982295,-2.942588395869401,-4.446393721750868,-2.182173731258999,-0.4299005609937012,-2.199904685342587,2.058484628183379,3.785848768645537,0.8750435600208101],[1.9149202713742852,-2.0705441813939824,8.386317819651461,-1.005068544816165,0.33716697013005614,4.128770245214775,-3.7191863128741875,-6.9118065854628785,1.6575196111162545,-3.72029498917982,0.34014429349401165,2.934053724849968,-7.460610882304992,9.103352011219094,-3.044801363394137,3.8689307961006776,-2.100631579111436,0.4712807432999895,0.12055179879936741,2.10486370138824,-2.6769708399660885,-2.2745976732700712,-0.5887569862586751,0.6028918440117951,-2.8958243457600474,0.9579351369907695,-3.479363192585338,-1.5802957707527059,1.033237209836901],[4.5832117344252765,-3.863296592084094,5.502894152775868,-0.7420115942798435,4.061699123121798,-1.0908038401086342,0.5616802071806724,2.5257340162985287,-9.572439910895095,-0.5270821764133871,-0.6803852090034567,-1.930024015337357,2.3059282753290273,-10.524908566092432,4.5139210804194025,-0.7861930550286612,7.657769667064975,-0.8424615353239603,2.5208882726453035,-0.40746314683929086,-3.1565128453075886,10.234066982438202,0.31221932335687214,-1.2152552882551804,3.4819146641530097,-0.9914566738877426,1.322236588619112,-24.403675428412345,-4.516735671974116],[-4.1698867082595825,2.806872303173757,-1.0647965744596988,-1.0265898273626803,1.5919858496636152,4.963401489089546,-1.1778669171998424,-14.966643650020556,-2.425949060692881,0.0863271881826222,3.6069166382039892,1.9954418491333292,-2.3146449870922994,-1.9322632304111942,3.7140334497638774,-3.956486236049141,-13.817310040618533,-7.051898272700833,-2.970769062123617,3.8111470662988722,2.7530953381210566,-3.7701422520515595,-1.9973670722912131,-0.4161163871987218,3.7618381856009364,4.2067458425913635,-30.768713310736135,94.96557563015774,22.701103464286323],[3.1199911748990417,3.6463671100534634,1.3719620904604422,-4.245480123112152,-0.8758657472208142,2.770400508307267,-0.11986495627459683,1.2456748952116052,0.910965582765153,-4.629632271826267,-3.154389053497018,-3.847865542984635,2.363607271438465,-4.088653463642209,0.5279392030970008,3.4385754519449896,-2.740607687321627,-4.318235528224313,1.4496903521162894,1.5307313157245517,-2.109596354421228,-1.1327164625952084,3.5191194283622904,1.322721035763026,-1.9204085296951234,-5.204755462258005,-1.34930586241939,2.8160510319903134,3.323392742748578],[-0.33041937043890357,-4.35862693037864,1.9974621726130382,2.2835818948366007,-4.726763677317649,4.492840386363526,1.8032568931163147,2.4831723751575305,2.614699914970406,3.6152740311808884,1.4796372942222908,-3.4656162460444793,2.5947828226338885,2.766466115858927,2.1502033063533714,-2.129936296863529,-0.5999856798697718,-0.3844542529798982,3.3994341088142943,3.9057616144418716,-0.19253429723903537,-0.623974862379631,-3.640274034658213,-0.47150347584842267,1.0634035430848598,4.656807609974373,1.5570832374899737,0.8835128513935753,4.530698884216651],[-3.1646867259405553,-1.9871757019138747,-3.328308067590686,0.7164196469236471,1.578640656080097,-0.6178773645255364,2.967394693931015,-3.425143411540022,-5.289076140706953,1.4352796063758433,4.071845091456289,12.644327777216583,-8.73881069003874,2.6012278141974803,-4.7989384678751215,-5.239117604980772,3.401996195697002,3.1715150097152343,1.7176899204602087,-4.640524946153164,4.476926901843399,2.8592816407476707,-0.6070049034292254,1.4399632806334992,2.171413698233664,2.4326173425123585,10.151293136175791,-44.602723829705276,-11.873573778725719],[2.945609854068607,-5.584612538819733,-1.4813203901686063,-0.8593361401222211,-0.0412520207464695,-0.5457879315172044,-3.4818918110897243,8.127858762234274,-2.7597097253239378,-0.5219244631007314,1.5816666575180442,-5.2931558334921816,3.431453627038964,-4.453838394849403,0.6130580026874418,-0.5479950213078003,-6.380992845124004,2.803707963518732,-3.19484321171578,-1.5182794840075076,-2.4278131569735706,-5.209352769910111,6.965212417990502,-4.784087568532453,-3.2495205220766366,-6.155324056861494,-13.905019819096214,18.660342063937048,0.3467064422131319],[-3.94087596796453,-0.7136089695118403,-3.4931843713103357,3.7773174631044704,0.18869036342948675,-4.654212258756161,-4.466597405184193,0.6978579932111001,-1.5041193056767408,-2.248583431355655,-0.8580578654191342,4.436099802628001,-3.9318286539536698,-4.061124377593944,-3.5527183218615463,-3.1748630176391752,-2.142688480698667,-4.8810333937908705,-0.5866629297102776,0.9356127912178636,3.950789589434862,-1.8349172637031232,-3.451841343955747,-0.2258885007425208,-0.7520809234119952,-4.841374066538085,1.0180323258747148,-4.834258031476506,1.2213075132655737]],[[5.4233481415629985,1.6072555702703626,2.5462308523983133,-1.8118977758095374,-7.275808860161266,0.16945115053429458,2.902455493855053,0.4388106127703548,-6.349714053527428,-4.0610687688603475,-4.257388344265557,-2.2475485776055875,-3.755616403295092,5.431668704997913,-6.848654703483656,-5.539861087631525,-5.779273189205763,1.0394510261779277,7.224801544129085,-3.52218403338513,4.3554323291864,8.522357240110622,0.5966500485267529,-4.747217276357499,-1.588733755054145,0.9747075086180674,10.323933008300015,-9.17885474742115,4.06137090991864],[-4.753285947127773,-1.8255995768737365,-2.1467845373856203,-6.460472464650214,-1.3524110766983166,2.2544112705255093,-5.232209923171121,2.2279293979364563,-1.0466549674596504,1.112308528216433,1.1016660200270485,-1.033266550069515,2.540246285607306,-1.5826340265789554,-3.2922727716195364,-5.16868399646198,-3.986732941309504,-0.2837146298664824,2.537558682375101,1.8604953244695464,4.132028806888818,-1.1909767643074978,1.8366994910272065,-3.233068720542011,-3.8422279795484697,0.2680939785313115,0.4636108742232189,-4.091703325396289,-3.6724586588011703],[1.1372990260678624,3.9042892354469503,-0.8969749027847944,-4.875249597676074,-8.157344443764588,0.8967565912141483,-10.07934400277647,-11.303726798427164,-2.5765310622666764,0.8136794929479589,-2.1813884199683384,-0.6122849157501814,-3.789163559590101,-0.04027641955364052,5.737724753782655,-0.8898402204016937,0.8384529086792981,-6.480999862145946,-9.413244224499847,7.205431722741017,2.4406170849138324,-1.7646395215501909,5.29522541992933,-3.9411289504494373,0.0055129734839482235,-4.908341657616179,-1.3154319528545948,9.343645759265424,4.192881872233821],[-1.0885899277168871,-3.557082024138885,-4.3031314271697685,-2.150020937555713,1.2539733135166795,7.408883336874349,-9.623220369714916,-1.6743589663293252,-2.738337361387004,-3.150174542892064,7.428294079639243,10.286722593748294,2.0951149435937224,-0.9092476715080503,-9.606444450538113,1.729946904503793,3.9620712378712,-6.7221163640271016,8.925975534838306,0.7245937967713119,-3.7699842039940235,4.359713059352496,5.9168584734173315,-3.4710081454608286,1.4998672374701505,-4.637260001602062,-2.3197176536800876,1.4417549947981572,-3.4123907386660646],[-4.611609503919499,-0.5875339156818155,-2.1065136263935034,-5.65734156811444,8.951047325355695,-1.930276962044662,1.6807029682944468,3.2188530458823776,-6.58581631537418,-0.1914113383557398,3.4846256044088237,-3.705683818287313,2.1252511161076213,4.928334261606095,4.112172716145943,-7.7773346633130345,-8.828276900963727,0.758714325983606,-7.845337332700612,-4.112525532818909,2.091279674831715,2.8114846528909627,-4.657376985153256,9.6566887516754,-0.23960937393839363,-8.520278713329825,6.540749094892826,6.887627213620104,0.6911133512451264],[-2.2603271756270833,-6.157596730454685,-2.7417412701589425,1.0948397333832176,11.488822019369751,-3.3774233967410234,-14.045370399839019,-3.4128708756311066,-3.9091815358101,-1.3769152580106474,0.3095127469499528,1.1717988723602113,-4.699900238265532,-1.7688885095950246,8.51936129122402,1.649724652935964,-1.0435548431792177,-0.04472081634703199,-0.38715697977785535,3.0169836475908047,-0.022479425462473147,-6.567155120092846,-2.9515695264287545,-0.7582263258073928,4.552379897687979,1.9590473604343306,0.8238831622073511,-8.181497611038752,4.295660686778883],[5.954337795033753,4.215945424898453,1.0518914355054936,0.6817202719863196,8.078017432129808,-0.18693884272157163,1.7479959140261143,0.3639174102403244,-4.013395431798165,-1.8319518645084463,-2.2901711612435767,3.86992946028448,4.168731042924588,-17.50834851562888,-8.073398334746539,0.4073148323782705,-4.730048926815559,1.5865064459174147,-1.7228012433882494,2.478176141816629,-1.054526300104597,2.6918461749094025,3.808583187502801,-12.553659427700525,4.629778853363622,-4.026839134271092,8.588000900065099,7.9382903625219985,2.490463993756606],[-2.6156881472044233,-4.0184394119667886,-1.5707954713587253,-5.730586558278922,0.6011895167938623,-4.154706378123722,5.057913170018052,-8.619321991478175,-1.907404783367358,-1.4706743706110554,0.5337025213174121,9.000884779085238,4.061458872928549,4.5728500198048385,8.346199206598559,-9.790978173297674,-5.261595416358705,2.853452519045432,6.129435503565642,-2.373392535837986,-1.6129133289909832,-3.4690782430755607,-0.8022968583312268,8.475203641795876,-2.7613121109059007,-2.784883135700304,-7.308807585102157,-13.033038991898657,1.1741596451893306],[-1.3081542406497064,-4.54291217398036,-4.694321643408469,4.835855958048282,-3.1515758967417824,-2.708150775957385,14.465809385547226,-0.18445141029739906,-1.9223401845789982,-0.7321014783599656,2.901937696821431,-3.9845174429958874,3.70455927754782,5.199217847139755,-7.131088056730839,2.060627782365833,0.5803160503890357,-4.48373465918641,-8.984352745904433,-1.4092700509624991,-1.536964157784064,-10.536247204632337,3.0144927329947993,-4.373792089635827,2.989663537677717,-2.1490563170974224,-6.951627851424894,-9.811534424072963,-1.5189226723608802],[-2.4623945308589392,-3.1988052893182295,-4.105885433150642,-2.578074971661287,5.0806201132945015,4.590983179297723,-10.95802860616042,7.549748475807427,3.0727130217701797,-0.015343734123511572,-0.7395663136856635,-6.268797765985988,12.077496310595933,2.315021402323446,-6.450815603662941,-0.411019557146418,-6.578542956787162,9.553222944330553,-3.5281302986057574,-5.4870481136543425,-1.764533081478642,6.023393952783769,-12.881666699836767,-2.066202337327757,-2.4553185065634286,1.1277068312508285,-9.675505376944844,5.399235921801335,-4.11796963659849]]],"biasWeights":[null,[-4.094006116836688,0.018505795507843696,-5.1049077203791535,-2.9680313979435966,1.8390761804239626,-0.7420957754126071,4.206631917806088,0.8638841324611145,0.23322211054230516,2.781903911616745,-1.269920038523324,-2.421157115942169,-0.4878323635232068,-2.011808291933264,-5.6061148136616294,1.6727206924692126,0.1181680927020933,-1.663817587114377,-0.5363286741564904,-1.3613929673892995,-2.3910082019603855,0.17390583021377087,4.195724373625304,-2.4068546508741684,-4.632151915000876,3.6189165779343564,3.279013555307112,4.1338784905780335,-2.8029813514616966],[-4.407445920720876,0.38785598369581503,4.290245839684329,-1.6969027976812492,-1.551472393449501,-2.911640678736153,-3.387943197523183,0.3130968202977875,-4.139596937710858,-2.3031020210649027]]}